svm_type c_svc
kernel_type sigmoid
gamma 0.5
coef0 0
nr_class 2
total_sv 6
rho -0.6315135515499597
label 1 2
probA -1.7144253127846518
probB -0.17699404151880177
nr_sv 3 3
SV
0.36892154425498541 1:-0.86589072 2:-0.18577177 
1 1:0.48544302 2:0.20942538 
1 1:0.66160404 2:0.33971854 
-1 1:0.65861479 2:-0.38344551 
-0.36892154425498536 1:1.644615 2:-1.4668921 
-1 1:1.0206886 2:-1.0907153 
